<?xml version="1.0" encoding="utf-8"?>
<NeuralNetwork Type="BackPropagation">
	<Parameters>
		<Name>Default</Name>
		<inputSize>25</inputSize>
		<layerCount>2</layerCount>
		<Layers>
			<Layer Index="0" Size="35" Type="Sigmoid" />
			<Layer Index="1" Size="4" Type="Linear" />
		</Layers>
	</Parameters>
	<Weights>
		<Layer Index="0">
			<Node Index="0" Bias="-0.637224556127275">
				<Axon Index="0">-2.02349963497412</Axon>
				<Axon Index="1">-0.573687994121889</Axon>
				<Axon Index="2">-0.241497490283106</Axon>
				<Axon Index="3">-0.299959567196153</Axon>
				<Axon Index="4">1.02492941398588</Axon>
				<Axon Index="5">1.65540989105929</Axon>
				<Axon Index="6">-0.892682416409745</Axon>
				<Axon Index="7">-0.99366333400747</Axon>
				<Axon Index="8">1.00521552207078</Axon>
				<Axon Index="9">-0.77100521215945</Axon>
				<Axon Index="10">-3.44977218842731</Axon>
				<Axon Index="11">-0.769061713303465</Axon>
				<Axon Index="12">-3.68290550995133</Axon>
				<Axon Index="13">-0.833441239998937</Axon>
				<Axon Index="14">-2.45084648954971</Axon>
				<Axon Index="15">1.8011334487758</Axon>
				<Axon Index="16">-1.81177327398196</Axon>
				<Axon Index="17">-0.00906512896280137</Axon>
				<Axon Index="18">-0.526336674092259</Axon>
				<Axon Index="19">1.97929110547026</Axon>
				<Axon Index="20">-2.35230319860441</Axon>
				<Axon Index="21">0.633252268034414</Axon>
				<Axon Index="22">0.494188394499366</Axon>
				<Axon Index="23">0.493499096009778</Axon>
				<Axon Index="24">1.26432588821817</Axon>
			</Node>
			<Node Index="1" Bias="-7.10830811899008">
				<Axon Index="0">-5.186399213983</Axon>
				<Axon Index="1">-0.512998015674535</Axon>
				<Axon Index="2">0.281329979465504</Axon>
				<Axon Index="3">1.21411285734276</Axon>
				<Axon Index="4">-5.80863814018689</Axon>
				<Axon Index="5">2.48062883335753</Axon>
				<Axon Index="6">-4.10901947564368</Axon>
				<Axon Index="7">0.768901278461757</Axon>
				<Axon Index="8">-6.7984134703234</Axon>
				<Axon Index="9">-0.892431153425366</Axon>
				<Axon Index="10">-1.10855101797994</Axon>
				<Axon Index="11">-0.545949227017688</Axon>
				<Axon Index="12">-8.06434711380877</Axon>
				<Axon Index="13">-1.11168714821242</Axon>
				<Axon Index="14">-1.42795510280442</Axon>
				<Axon Index="15">1.51131568602191</Axon>
				<Axon Index="16">-4.78788564571703</Axon>
				<Axon Index="17">-1.16430776242499</Axon>
				<Axon Index="18">-5.80358002311782</Axon>
				<Axon Index="19">-0.857696932024281</Axon>
				<Axon Index="20">-7.78459373779837</Axon>
				<Axon Index="21">0.274843630995113</Axon>
				<Axon Index="22">-0.691318238014446</Axon>
				<Axon Index="23">0.281533821374628</Axon>
				<Axon Index="24">-4.11887354428904</Axon>
			</Node>
			<Node Index="2" Bias="-4.32832458254733">
				<Axon Index="0">-4.05995274292924</Axon>
				<Axon Index="1">-0.584890290731763</Axon>
				<Axon Index="2">0.947039032945949</Axon>
				<Axon Index="3">-1.00124032913027</Axon>
				<Axon Index="4">-4.61298646216319</Axon>
				<Axon Index="5">0.251066466218862</Axon>
				<Axon Index="6">-4.63805237086598</Axon>
				<Axon Index="7">-0.0694081963382324</Axon>
				<Axon Index="8">-4.04942702254055</Axon>
				<Axon Index="9">1.08855341944647</Axon>
				<Axon Index="10">0.42515943877155</Axon>
				<Axon Index="11">-0.537603385577501</Axon>
				<Axon Index="12">-4.83869321545542</Axon>
				<Axon Index="13">-0.269005794049577</Axon>
				<Axon Index="14">0.709294837359732</Axon>
				<Axon Index="15">0.967287974250355</Axon>
				<Axon Index="16">-4.59698885721704</Axon>
				<Axon Index="17">-0.728486000616945</Axon>
				<Axon Index="18">-3.58658172238236</Axon>
				<Axon Index="19">0.638980463688557</Axon>
				<Axon Index="20">-3.48204689036771</Axon>
				<Axon Index="21">-0.309014816497717</Axon>
				<Axon Index="22">0.500683802593654</Axon>
				<Axon Index="23">0.362222538628012</Axon>
				<Axon Index="24">-1.88803023134951</Axon>
			</Node>
			<Node Index="3" Bias="-0.172907449363075">
				<Axon Index="0">-0.762963937862058</Axon>
				<Axon Index="1">0.818400560449986</Axon>
				<Axon Index="2">-0.533759902061574</Axon>
				<Axon Index="3">-0.37449226680287</Axon>
				<Axon Index="4">0.28726136271943</Axon>
				<Axon Index="5">-1.321900437379</Axon>
				<Axon Index="6">0.239831333912234</Axon>
				<Axon Index="7">1.2377176092612</Axon>
				<Axon Index="8">-0.601474846657102</Axon>
				<Axon Index="9">0.48134369216865</Axon>
				<Axon Index="10">-0.41268768152893</Axon>
				<Axon Index="11">0.356022466298589</Axon>
				<Axon Index="12">1.00448665916061</Axon>
				<Axon Index="13">0.658710014728243</Axon>
				<Axon Index="14">-0.704423384887457</Axon>
				<Axon Index="15">-0.838781921075341</Axon>
				<Axon Index="16">0.0225751033622524</Axon>
				<Axon Index="17">1.11278918660924</Axon>
				<Axon Index="18">-0.0847340872840909</Axon>
				<Axon Index="19">-1.55262882106118</Axon>
				<Axon Index="20">-2.37028323760636</Axon>
				<Axon Index="21">0.468665274158406</Axon>
				<Axon Index="22">-1.90945323337111</Axon>
				<Axon Index="23">-0.971646282183778</Axon>
				<Axon Index="24">-1.3927091447067</Axon>
			</Node>
			<Node Index="4" Bias="-1.12775193087577">
				<Axon Index="0">-1.64863475836507</Axon>
				<Axon Index="1">0.483697471236287</Axon>
				<Axon Index="2">-0.0675808740629412</Axon>
				<Axon Index="3">0.696124148678547</Axon>
				<Axon Index="4">-1.74534699779578</Axon>
				<Axon Index="5">-0.0194706621129436</Axon>
				<Axon Index="6">-2.02667820901451</Axon>
				<Axon Index="7">1.25029710890418</Axon>
				<Axon Index="8">-2.46143013014763</Axon>
				<Axon Index="9">-2.1014518480324</Axon>
				<Axon Index="10">-1.78646273712257</Axon>
				<Axon Index="11">-3.61287050506793</Axon>
				<Axon Index="12">-1.81985359308028</Axon>
				<Axon Index="13">-1.1655483105574</Axon>
				<Axon Index="14">-1.85545492213815</Axon>
				<Axon Index="15">-0.952858669595549</Axon>
				<Axon Index="16">-2.13455527882487</Axon>
				<Axon Index="17">-0.422494962026811</Axon>
				<Axon Index="18">-3.09168104317922</Axon>
				<Axon Index="19">0.84376801977233</Axon>
				<Axon Index="20">-2.49605405255651</Axon>
				<Axon Index="21">0.616783539049194</Axon>
				<Axon Index="22">1.99787578030825</Axon>
				<Axon Index="23">-1.04774348909536</Axon>
				<Axon Index="24">-2.04184737251938</Axon>
			</Node>
			<Node Index="5" Bias="-1.98345645978351">
				<Axon Index="0">-1.71387201648543</Axon>
				<Axon Index="1">-1.29653288239046</Axon>
				<Axon Index="2">-2.37880079127612</Axon>
				<Axon Index="3">1.24322170116634</Axon>
				<Axon Index="4">-0.0663542404787776</Axon>
				<Axon Index="5">0.0177785293245935</Axon>
				<Axon Index="6">-0.741722317445618</Axon>
				<Axon Index="7">0.0207748526948639</Axon>
				<Axon Index="8">-0.556773124079629</Axon>
				<Axon Index="9">-0.899072035407593</Axon>
				<Axon Index="10">-1.24374813563785</Axon>
				<Axon Index="11">-0.0883765430476889</Axon>
				<Axon Index="12">0.230934192222916</Axon>
				<Axon Index="13">-1.18874008516818</Axon>
				<Axon Index="14">-0.50786865913758</Axon>
				<Axon Index="15">0.964369242828331</Axon>
				<Axon Index="16">-1.43108085313206</Axon>
				<Axon Index="17">-0.340885824664007</Axon>
				<Axon Index="18">-0.268693091337557</Axon>
				<Axon Index="19">-0.585810777038829</Axon>
				<Axon Index="20">-0.48919012380685</Axon>
				<Axon Index="21">-1.75463759465563</Axon>
				<Axon Index="22">-0.238740472167221</Axon>
				<Axon Index="23">-0.636617225911493</Axon>
				<Axon Index="24">1.25784823998993</Axon>
			</Node>
			<Node Index="6" Bias="-3.64618963020909">
				<Axon Index="0">0.101502255304969</Axon>
				<Axon Index="1">-1.56324045683817</Axon>
				<Axon Index="2">-0.733728272554327</Axon>
				<Axon Index="3">0.94742338093482</Axon>
				<Axon Index="4">0.635384701098628</Axon>
				<Axon Index="5">-1.06953857071266</Axon>
				<Axon Index="6">0.957137002562614</Axon>
				<Axon Index="7">-0.168966138535249</Axon>
				<Axon Index="8">-2.46909757157949</Axon>
				<Axon Index="9">0.834577866273555</Axon>
				<Axon Index="10">-3.05662028590983</Axon>
				<Axon Index="11">-1.86163428605028</Axon>
				<Axon Index="12">-4.03188600461327</Axon>
				<Axon Index="13">-3.47109869596655</Axon>
				<Axon Index="14">-2.18996009544376</Axon>
				<Axon Index="15">-0.0589896355644006</Axon>
				<Axon Index="16">1.34471931445288</Axon>
				<Axon Index="17">0.542092989060346</Axon>
				<Axon Index="18">0.162202978927795</Axon>
				<Axon Index="19">-0.837429535455518</Axon>
				<Axon Index="20">0.171133089721138</Axon>
				<Axon Index="21">2.14859115596671</Axon>
				<Axon Index="22">1.87348644496511</Axon>
				<Axon Index="23">0.835095183733526</Axon>
				<Axon Index="24">-1.04440583696094</Axon>
			</Node>
			<Node Index="7" Bias="-0.177908744702897">
				<Axon Index="0">-1.93466596801392</Axon>
				<Axon Index="1">-0.3659324978196</Axon>
				<Axon Index="2">0.859670225962326</Axon>
				<Axon Index="3">1.06858110716468</Axon>
				<Axon Index="4">-1.04834806573778</Axon>
				<Axon Index="5">-0.7237344626343</Axon>
				<Axon Index="6">-0.425605632696411</Axon>
				<Axon Index="7">0.0923426574375902</Axon>
				<Axon Index="8">-0.384743458271985</Axon>
				<Axon Index="9">-1.15505144298181</Axon>
				<Axon Index="10">-0.423109227982318</Axon>
				<Axon Index="11">0.758781766589152</Axon>
				<Axon Index="12">-2.44645397552648</Axon>
				<Axon Index="13">1.38864444827705</Axon>
				<Axon Index="14">1.79171235597651</Axon>
				<Axon Index="15">-1.04927301389602</Axon>
				<Axon Index="16">0.537278462514925</Axon>
				<Axon Index="17">2.10532592205687</Axon>
				<Axon Index="18">-1.86282831925768</Axon>
				<Axon Index="19">0.376460683181911</Axon>
				<Axon Index="20">-0.595382356761426</Axon>
				<Axon Index="21">1.57354170830298</Axon>
				<Axon Index="22">0.161453480198126</Axon>
				<Axon Index="23">-1.04717781827694</Axon>
				<Axon Index="24">-1.2034294091885</Axon>
			</Node>
			<Node Index="8" Bias="-14.3219276968478">
				<Axon Index="0">-13.6427304875588</Axon>
				<Axon Index="1">-0.292770716393924</Axon>
				<Axon Index="2">-0.502189122672799</Axon>
				<Axon Index="3">-0.376074736121351</Axon>
				<Axon Index="4">-11.6631614841643</Axon>
				<Axon Index="5">1.88912401203518</Axon>
				<Axon Index="6">-12.4465845846036</Axon>
				<Axon Index="7">-0.962405241415205</Axon>
				<Axon Index="8">-13.0866499879955</Axon>
				<Axon Index="9">-0.456211307375322</Axon>
				<Axon Index="10">-1.42033058202754</Axon>
				<Axon Index="11">-2.69393421626944</Axon>
				<Axon Index="12">-15.0329205333233</Axon>
				<Axon Index="13">-1.97502094725264</Axon>
				<Axon Index="14">-2.20135581329423</Axon>
				<Axon Index="15">1.13843904601977</Axon>
				<Axon Index="16">-12.3540004417926</Axon>
				<Axon Index="17">0.501248714381978</Axon>
				<Axon Index="18">-11.0693438107129</Axon>
				<Axon Index="19">-0.00298497706864195</Axon>
				<Axon Index="20">-13.6433328446892</Axon>
				<Axon Index="21">-0.791277428880429</Axon>
				<Axon Index="22">1.62557112323572</Axon>
				<Axon Index="23">-1.23235589721905</Axon>
				<Axon Index="24">-13.0908064634581</Axon>
			</Node>
			<Node Index="9" Bias="-1.58500170777776">
				<Axon Index="0">-1.49128634769286</Axon>
				<Axon Index="1">1.21556395480183</Axon>
				<Axon Index="2">-1.49833893646103</Axon>
				<Axon Index="3">-1.31180893408144</Axon>
				<Axon Index="4">-0.379659072616777</Axon>
				<Axon Index="5">2.0479617815693</Axon>
				<Axon Index="6">0.286805812510539</Axon>
				<Axon Index="7">-0.614691739658035</Axon>
				<Axon Index="8">-0.981757899276666</Axon>
				<Axon Index="9">0.658202961887055</Axon>
				<Axon Index="10">-3.38509607119167</Axon>
				<Axon Index="11">-3.54385852801067</Axon>
				<Axon Index="12">-2.36099288725368</Axon>
				<Axon Index="13">-2.677027624755</Axon>
				<Axon Index="14">-2.10787524510255</Axon>
				<Axon Index="15">-1.37067526233202</Axon>
				<Axon Index="16">-1.45701444812992</Axon>
				<Axon Index="17">-1.02971442727276</Axon>
				<Axon Index="18">0.868508756963375</Axon>
				<Axon Index="19">0.19375258612934</Axon>
				<Axon Index="20">-1.47805940996695</Axon>
				<Axon Index="21">0.0792219618060994</Axon>
				<Axon Index="22">-2.75595817818019</Axon>
				<Axon Index="23">0.578510862628572</Axon>
				<Axon Index="24">-0.779218186266912</Axon>
			</Node>
			<Node Index="10" Bias="-2.28988440684473">
				<Axon Index="0">-0.497309753664954</Axon>
				<Axon Index="1">-1.66610339909584</Axon>
				<Axon Index="2">0.151272721472404</Axon>
				<Axon Index="3">-0.281148849449717</Axon>
				<Axon Index="4">-2.01000648670387</Axon>
				<Axon Index="5">0.109481068397825</Axon>
				<Axon Index="6">-0.728824950460878</Axon>
				<Axon Index="7">0.30077058773817</Axon>
				<Axon Index="8">-0.52419910181665</Axon>
				<Axon Index="9">-0.721006423394531</Axon>
				<Axon Index="10">-1.46756290992436</Axon>
				<Axon Index="11">0.983525326490844</Axon>
				<Axon Index="12">-2.39812666419375</Axon>
				<Axon Index="13">0.105212988321978</Axon>
				<Axon Index="14">-1.64076284242388</Axon>
				<Axon Index="15">1.07073950843733</Axon>
				<Axon Index="16">-0.160053902718247</Axon>
				<Axon Index="17">0.287761038332569</Axon>
				<Axon Index="18">-2.23479545039722</Axon>
				<Axon Index="19">0.759010969244517</Axon>
				<Axon Index="20">-1.26157488413753</Axon>
				<Axon Index="21">-1.45467930635672</Axon>
				<Axon Index="22">-0.105418644540545</Axon>
				<Axon Index="23">0.270384215715819</Axon>
				<Axon Index="24">-0.387077548012446</Axon>
			</Node>
			<Node Index="11" Bias="-5.7461313362805">
				<Axon Index="0">-4.93193242820537</Axon>
				<Axon Index="1">0.0510013151195052</Axon>
				<Axon Index="2">-0.170468744710128</Axon>
				<Axon Index="3">0.906413673971662</Axon>
				<Axon Index="4">-6.02627551784742</Axon>
				<Axon Index="5">2.42052191583965</Axon>
				<Axon Index="6">-2.68710169204173</Axon>
				<Axon Index="7">0.572585808324372</Axon>
				<Axon Index="8">-4.3699273714875</Axon>
				<Axon Index="9">1.33347923475198</Axon>
				<Axon Index="10">-2.34969860228592</Axon>
				<Axon Index="11">-3.19688030021879</Axon>
				<Axon Index="12">-9.00143177551764</Axon>
				<Axon Index="13">-1.24948283032828</Axon>
				<Axon Index="14">-1.20409334924835</Axon>
				<Axon Index="15">0.717428397253411</Axon>
				<Axon Index="16">-5.14596834980687</Axon>
				<Axon Index="17">-0.0618763665262397</Axon>
				<Axon Index="18">-4.8899367496906</Axon>
				<Axon Index="19">-0.896226064914052</Axon>
				<Axon Index="20">-4.61487172721623</Axon>
				<Axon Index="21">1.04733886758864</Axon>
				<Axon Index="22">0.109495403651998</Axon>
				<Axon Index="23">-0.413496915140722</Axon>
				<Axon Index="24">-6.02652411722537</Axon>
			</Node>
			<Node Index="12" Bias="-7.13248659169725">
				<Axon Index="0">-6.09553485821688</Axon>
				<Axon Index="1">-0.580234039603925</Axon>
				<Axon Index="2">0.60002737288797</Axon>
				<Axon Index="3">-0.679919873403779</Axon>
				<Axon Index="4">-6.53243398534136</Axon>
				<Axon Index="5">-0.46441675567458</Axon>
				<Axon Index="6">-5.38867254358881</Axon>
				<Axon Index="7">-0.303276774926144</Axon>
				<Axon Index="8">-5.45384694743344</Axon>
				<Axon Index="9">0.264259304602565</Axon>
				<Axon Index="10">0.30489551177065</Axon>
				<Axon Index="11">-0.543939154814332</Axon>
				<Axon Index="12">-6.03758255989088</Axon>
				<Axon Index="13">-0.670234568391168</Axon>
				<Axon Index="14">-0.727551959338951</Axon>
				<Axon Index="15">0.875231476061978</Axon>
				<Axon Index="16">-4.45711345719697</Axon>
				<Axon Index="17">0.56054157038654</Axon>
				<Axon Index="18">-4.53738291738689</Axon>
				<Axon Index="19">0.528572279064585</Axon>
				<Axon Index="20">-5.35374720529715</Axon>
				<Axon Index="21">-0.872512841710048</Axon>
				<Axon Index="22">-1.1710733863065</Axon>
				<Axon Index="23">1.0284999531022</Axon>
				<Axon Index="24">-5.18005109396559</Axon>
			</Node>
			<Node Index="13" Bias="-2.09861731477716">
				<Axon Index="0">1.1166623789982</Axon>
				<Axon Index="1">0.752225864525074</Axon>
				<Axon Index="2">1.2906065738237</Axon>
				<Axon Index="3">-1.05357682878553</Axon>
				<Axon Index="4">-1.88153720783067</Axon>
				<Axon Index="5">0.789446440511218</Axon>
				<Axon Index="6">-2.15698262768009</Axon>
				<Axon Index="7">1.60080559225754</Axon>
				<Axon Index="8">-0.855266961022009</Axon>
				<Axon Index="9">1.3508999564464</Axon>
				<Axon Index="10">-0.103467210115317</Axon>
				<Axon Index="11">-1.8169885604031</Axon>
				<Axon Index="12">-3.333173561514</Axon>
				<Axon Index="13">-1.28477960621121</Axon>
				<Axon Index="14">-1.20459560429061</Axon>
				<Axon Index="15">1.23446774247305</Axon>
				<Axon Index="16">0.259625047377527</Axon>
				<Axon Index="17">-1.31435302836688</Axon>
				<Axon Index="18">-1.38481828981483</Axon>
				<Axon Index="19">0.338564516877023</Axon>
				<Axon Index="20">-1.47019759668521</Axon>
				<Axon Index="21">0.0994677001980828</Axon>
				<Axon Index="22">-0.469853741669982</Axon>
				<Axon Index="23">-0.488056981130454</Axon>
				<Axon Index="24">-0.809127562341041</Axon>
			</Node>
			<Node Index="14" Bias="-4.04513458941918">
				<Axon Index="0">-3.01627562807412</Axon>
				<Axon Index="1">1.2724278919748</Axon>
				<Axon Index="2">1.15759189853478</Axon>
				<Axon Index="3">0.94154913736795</Axon>
				<Axon Index="4">-3.16647408688931</Axon>
				<Axon Index="5">0.714129422745947</Axon>
				<Axon Index="6">-5.20683821412525</Axon>
				<Axon Index="7">0.655364246293696</Axon>
				<Axon Index="8">-2.49802893665249</Axon>
				<Axon Index="9">-2.14401762106516</Axon>
				<Axon Index="10">-1.71273520331939</Axon>
				<Axon Index="11">-0.1065431273242</Axon>
				<Axon Index="12">-2.85716635172937</Axon>
				<Axon Index="13">-0.123414471300718</Axon>
				<Axon Index="14">-0.855113130256214</Axon>
				<Axon Index="15">-0.915073703920363</Axon>
				<Axon Index="16">-2.95101749228471</Axon>
				<Axon Index="17">0.379564225971199</Axon>
				<Axon Index="18">-4.08933208118522</Axon>
				<Axon Index="19">-1.52641824908283</Axon>
				<Axon Index="20">-3.92420739274448</Axon>
				<Axon Index="21">-0.163807667660777</Axon>
				<Axon Index="22">-0.0547527156507549</Axon>
				<Axon Index="23">-0.265549438464416</Axon>
				<Axon Index="24">-2.84560918301331</Axon>
			</Node>
			<Node Index="15" Bias="-17.4060467903864">
				<Axon Index="0">-18.4114604007554</Axon>
				<Axon Index="1">-2.21599907483159</Axon>
				<Axon Index="2">-0.885909799427943</Axon>
				<Axon Index="3">-1.92152331223787</Axon>
				<Axon Index="4">-20.1687420389428</Axon>
				<Axon Index="5">0.153972352158727</Axon>
				<Axon Index="6">-18.0911854998705</Axon>
				<Axon Index="7">1.13578142265378</Axon>
				<Axon Index="8">-18.080552953056</Axon>
				<Axon Index="9">-1.6371494844129</Axon>
				<Axon Index="10">0.199217128743355</Axon>
				<Axon Index="11">0.141198864907596</Axon>
				<Axon Index="12">-16.737822403651</Axon>
				<Axon Index="13">1.48063335767988</Axon>
				<Axon Index="14">1.10218225479444</Axon>
				<Axon Index="15">-3.15115184695752</Axon>
				<Axon Index="16">-15.7858751077817</Axon>
				<Axon Index="17">-0.524318948773623</Axon>
				<Axon Index="18">-18.3665658375146</Axon>
				<Axon Index="19">0.4891871568222</Axon>
				<Axon Index="20">-19.2026198478688</Axon>
				<Axon Index="21">-0.84635277806716</Axon>
				<Axon Index="22">0.0364671040287403</Axon>
				<Axon Index="23">-2.1552770140136</Axon>
				<Axon Index="24">-18.1149121947736</Axon>
			</Node>
			<Node Index="16" Bias="-5.29731508442973">
				<Axon Index="0">-6.28014101973145</Axon>
				<Axon Index="1">0.406527603537761</Axon>
				<Axon Index="2">-0.974835455214333</Axon>
				<Axon Index="3">0.130675503033458</Axon>
				<Axon Index="4">-4.72091837610023</Axon>
				<Axon Index="5">-1.43161233042865</Axon>
				<Axon Index="6">-4.47044265510413</Axon>
				<Axon Index="7">-1.42380253007556</Axon>
				<Axon Index="8">-4.48216952263156</Axon>
				<Axon Index="9">-0.72786982359384</Axon>
				<Axon Index="10">0.551215784326</Axon>
				<Axon Index="11">0.296138698284203</Axon>
				<Axon Index="12">-5.50050291494209</Axon>
				<Axon Index="13">-1.04321455965598</Axon>
				<Axon Index="14">-0.210824782478519</Axon>
				<Axon Index="15">1.81645634228792</Axon>
				<Axon Index="16">-3.97067710183033</Axon>
				<Axon Index="17">-1.2119804762366</Axon>
				<Axon Index="18">-4.8174928471362</Axon>
				<Axon Index="19">-0.0934121063794198</Axon>
				<Axon Index="20">-5.15402190496571</Axon>
				<Axon Index="21">-0.773103383913275</Axon>
				<Axon Index="22">-1.7470627290294</Axon>
				<Axon Index="23">-1.23295417767235</Axon>
				<Axon Index="24">-4.13516963406846</Axon>
			</Node>
			<Node Index="17" Bias="-7.01163296884185">
				<Axon Index="0">-6.39980329110232</Axon>
				<Axon Index="1">0.0172723795222547</Axon>
				<Axon Index="2">1.21933211788108</Axon>
				<Axon Index="3">0.00403352790876059</Axon>
				<Axon Index="4">-6.40928469147251</Axon>
				<Axon Index="5">-0.404282850377684</Axon>
				<Axon Index="6">-7.81921212978589</Axon>
				<Axon Index="7">2.11158795008259</Axon>
				<Axon Index="8">-7.56305978882887</Axon>
				<Axon Index="9">-0.0651157743455472</Axon>
				<Axon Index="10">1.82167353661037</Axon>
				<Axon Index="11">1.28108727383124</Axon>
				<Axon Index="12">-5.34903526934347</Axon>
				<Axon Index="13">0.597057859790624</Axon>
				<Axon Index="14">1.6864409806685</Axon>
				<Axon Index="15">0.741940559803878</Axon>
				<Axon Index="16">-8.42214286899242</Axon>
				<Axon Index="17">0.511589282723161</Axon>
				<Axon Index="18">-8.04750674080792</Axon>
				<Axon Index="19">-0.563592669021198</Axon>
				<Axon Index="20">-9.16748588375951</Axon>
				<Axon Index="21">0.866340356931745</Axon>
				<Axon Index="22">0.245554721542316</Axon>
				<Axon Index="23">-1.03029754338171</Axon>
				<Axon Index="24">-8.58801576357043</Axon>
			</Node>
			<Node Index="18" Bias="-0.860685936182803">
				<Axon Index="0">0.438775553563825</Axon>
				<Axon Index="1">0.821119329801366</Axon>
				<Axon Index="2">0.994238358809474</Axon>
				<Axon Index="3">-1.06559357157599</Axon>
				<Axon Index="4">-1.62513630527393</Axon>
				<Axon Index="5">1.18662091589702</Axon>
				<Axon Index="6">-0.909279314428003</Axon>
				<Axon Index="7">1.15472914987924</Axon>
				<Axon Index="8">-1.5056622064607</Axon>
				<Axon Index="9">0.250823655092151</Axon>
				<Axon Index="10">-1.77624994140624</Axon>
				<Axon Index="11">-1.47025005128385</Axon>
				<Axon Index="12">-3.04934001682321</Axon>
				<Axon Index="13">-0.617985787671791</Axon>
				<Axon Index="14">-0.737893863343888</Axon>
				<Axon Index="15">1.11132718598605</Axon>
				<Axon Index="16">1.39540913162612</Axon>
				<Axon Index="17">-1.09648296051105</Axon>
				<Axon Index="18">1.27300746272372</Axon>
				<Axon Index="19">0.0797850179894187</Axon>
				<Axon Index="20">-0.526479679990743</Axon>
				<Axon Index="21">0.544190531980361</Axon>
				<Axon Index="22">0.768559344717307</Axon>
				<Axon Index="23">-0.770265521185819</Axon>
				<Axon Index="24">-1.02587593611962</Axon>
			</Node>
			<Node Index="19" Bias="-2.59914340987532">
				<Axon Index="0">-0.913221352474641</Axon>
				<Axon Index="1">0.60830143590283</Axon>
				<Axon Index="2">0.535402669798838</Axon>
				<Axon Index="3">-1.25148725494967</Axon>
				<Axon Index="4">-1.20150286397743</Axon>
				<Axon Index="5">0.419843591338135</Axon>
				<Axon Index="6">1.22703820317256</Axon>
				<Axon Index="7">0.0815177874236648</Axon>
				<Axon Index="8">-0.122559977064874</Axon>
				<Axon Index="9">0.0869857061003504</Axon>
				<Axon Index="10">-2.87749419838305</Axon>
				<Axon Index="11">-0.753492551688048</Axon>
				<Axon Index="12">-0.440053074436429</Axon>
				<Axon Index="13">-0.730941417418959</Axon>
				<Axon Index="14">0.921262145673638</Axon>
				<Axon Index="15">-1.05279446382147</Axon>
				<Axon Index="16">-1.31249265208943</Axon>
				<Axon Index="17">-0.894406819564453</Axon>
				<Axon Index="18">0.113089327794534</Axon>
				<Axon Index="19">-1.2763603292107</Axon>
				<Axon Index="20">0.731701403079821</Axon>
				<Axon Index="21">-0.240967485530374</Axon>
				<Axon Index="22">-0.0681784410630867</Axon>
				<Axon Index="23">0.722677995008549</Axon>
				<Axon Index="24">-0.889715762489039</Axon>
			</Node>
			<Node Index="20" Bias="-1.4088545066943">
				<Axon Index="0">-1.30694956694364</Axon>
				<Axon Index="1">-1.40247534369603</Axon>
				<Axon Index="2">0.34535223504549</Axon>
				<Axon Index="3">-0.125802478434963</Axon>
				<Axon Index="4">-1.6318039494989</Axon>
				<Axon Index="5">-1.02418311421855</Axon>
				<Axon Index="6">0.307336203486577</Axon>
				<Axon Index="7">-1.52365696035262</Axon>
				<Axon Index="8">1.49514516414516</Axon>
				<Axon Index="9">1.43548966050188</Axon>
				<Axon Index="10">-1.48307225368779</Axon>
				<Axon Index="11">-0.490440412615182</Axon>
				<Axon Index="12">-1.56707561643399</Axon>
				<Axon Index="13">-2.42937919917</Axon>
				<Axon Index="14">-1.93631285369687</Axon>
				<Axon Index="15">0.67890181637364</Axon>
				<Axon Index="16">-2.49531316058175</Axon>
				<Axon Index="17">0.252974780894212</Axon>
				<Axon Index="18">-1.43295824107566</Axon>
				<Axon Index="19">-0.766986748860128</Axon>
				<Axon Index="20">-1.52506663607253</Axon>
				<Axon Index="21">-0.00561823529527318</Axon>
				<Axon Index="22">0.725547321585455</Axon>
				<Axon Index="23">1.12173022108979</Axon>
				<Axon Index="24">-0.0969931566059694</Axon>
			</Node>
			<Node Index="21" Bias="-9.94919420322447">
				<Axon Index="0">-8.64968046782465</Axon>
				<Axon Index="1">-0.484808398505554</Axon>
				<Axon Index="2">-0.727359241575801</Axon>
				<Axon Index="3">-1.33658856743852</Axon>
				<Axon Index="4">-9.62007366747621</Axon>
				<Axon Index="5">0.928835450886131</Axon>
				<Axon Index="6">-10.4927161930262</Axon>
				<Axon Index="7">-0.679033173097553</Axon>
				<Axon Index="8">-6.9460906512551</Axon>
				<Axon Index="9">-0.0523768790020642</Axon>
				<Axon Index="10">-1.95211770778217</Axon>
				<Axon Index="11">-3.25860117230145</Axon>
				<Axon Index="12">-9.51664008592694</Axon>
				<Axon Index="13">-2.00491605657125</Axon>
				<Axon Index="14">-0.795794755391777</Axon>
				<Axon Index="15">0.246450105232215</Axon>
				<Axon Index="16">-8.60568795676572</Axon>
				<Axon Index="17">-0.999133443855226</Axon>
				<Axon Index="18">-9.05985814217411</Axon>
				<Axon Index="19">1.014856190109</Axon>
				<Axon Index="20">-7.97721128643036</Axon>
				<Axon Index="21">0.948491599680659</Axon>
				<Axon Index="22">2.32115277619282</Axon>
				<Axon Index="23">-0.13966865771329</Axon>
				<Axon Index="24">-9.05335697257517</Axon>
			</Node>
			<Node Index="22" Bias="-2.70701674700152">
				<Axon Index="0">-0.70093792640685</Axon>
				<Axon Index="1">-0.878743333094617</Axon>
				<Axon Index="2">0.220827078370195</Axon>
				<Axon Index="3">0.643728131023444</Axon>
				<Axon Index="4">0.31564132062122</Axon>
				<Axon Index="5">0.176463058362924</Axon>
				<Axon Index="6">1.4770009702165</Axon>
				<Axon Index="7">-0.00155889700378025</Axon>
				<Axon Index="8">0.27426198099973</Axon>
				<Axon Index="9">0.770038978638174</Axon>
				<Axon Index="10">-3.26430914745899</Axon>
				<Axon Index="11">-4.46509530513714</Axon>
				<Axon Index="12">-3.24544530490158</Axon>
				<Axon Index="13">-2.2883792933999</Axon>
				<Axon Index="14">-2.15122156768342</Axon>
				<Axon Index="15">0.0982934219095892</Axon>
				<Axon Index="16">-1.16407266765785</Axon>
				<Axon Index="17">-0.588658825766337</Axon>
				<Axon Index="18">-0.0996515648300181</Axon>
				<Axon Index="19">0.215972078711717</Axon>
				<Axon Index="20">0.815498348721015</Axon>
				<Axon Index="21">-1.52914355715368</Axon>
				<Axon Index="22">0.963363719191583</Axon>
				<Axon Index="23">-0.196904293570965</Axon>
				<Axon Index="24">-1.75649781693654</Axon>
			</Node>
			<Node Index="23" Bias="-2.21991527491737">
				<Axon Index="0">-1.74861201224999</Axon>
				<Axon Index="1">0.0305635966859615</Axon>
				<Axon Index="2">0.477742540402027</Axon>
				<Axon Index="3">1.21417114148775</Axon>
				<Axon Index="4">-0.728587292425253</Axon>
				<Axon Index="5">0.0220874347923832</Axon>
				<Axon Index="6">-0.426258797873244</Axon>
				<Axon Index="7">-0.839859344893708</Axon>
				<Axon Index="8">1.36153059000611</Axon>
				<Axon Index="9">-1.17726878194981</Axon>
				<Axon Index="10">-2.89252430038937</Axon>
				<Axon Index="11">-1.49741987849581</Axon>
				<Axon Index="12">-1.09565050244502</Axon>
				<Axon Index="13">-2.3274903409853</Axon>
				<Axon Index="14">-3.67716547920713</Axon>
				<Axon Index="15">-0.48986441590908</Axon>
				<Axon Index="16">-0.273930951524854</Axon>
				<Axon Index="17">0.12906479965328</Axon>
				<Axon Index="18">-0.352331294831807</Axon>
				<Axon Index="19">1.20801255614565</Axon>
				<Axon Index="20">-0.602924276297846</Axon>
				<Axon Index="21">-1.18769939663212</Axon>
				<Axon Index="22">1.12352076522759</Axon>
				<Axon Index="23">-2.19745434316195</Axon>
				<Axon Index="24">-1.07378201295571</Axon>
			</Node>
			<Node Index="24" Bias="-2.58696355558737">
				<Axon Index="0">-0.740753727352748</Axon>
				<Axon Index="1">-0.571038543691505</Axon>
				<Axon Index="2">-1.44437727274449</Axon>
				<Axon Index="3">0.133665795859953</Axon>
				<Axon Index="4">-2.12907122129708</Axon>
				<Axon Index="5">-0.0856508959375375</Axon>
				<Axon Index="6">-1.14658715952061</Axon>
				<Axon Index="7">1.2172207165859</Axon>
				<Axon Index="8">-0.685685527975857</Axon>
				<Axon Index="9">-0.768132984421801</Axon>
				<Axon Index="10">-0.379782748085692</Axon>
				<Axon Index="11">-0.98055373006903</Axon>
				<Axon Index="12">-2.75555586661517</Axon>
				<Axon Index="13">-1.02531317912848</Axon>
				<Axon Index="14">-0.791834372375099</Axon>
				<Axon Index="15">-1.60108638786842</Axon>
				<Axon Index="16">-1.31209967311475</Axon>
				<Axon Index="17">-0.533827073939777</Axon>
				<Axon Index="18">-0.187776252119472</Axon>
				<Axon Index="19">0.785510076888384</Axon>
				<Axon Index="20">-0.215019512820494</Axon>
				<Axon Index="21">1.33787165893313</Axon>
				<Axon Index="22">-0.289177697709255</Axon>
				<Axon Index="23">-0.321640412631962</Axon>
				<Axon Index="24">0.0856639704870689</Axon>
			</Node>
			<Node Index="25" Bias="-8.38751306974343">
				<Axon Index="0">0.662857887733751</Axon>
				<Axon Index="1">1.06459374085627</Axon>
				<Axon Index="2">-10.2950872280115</Axon>
				<Axon Index="3">-1.09154359416605</Axon>
				<Axon Index="4">0.270064964555085</Axon>
				<Axon Index="5">-0.13938809189913</Axon>
				<Axon Index="6">-1.26643165426691</Axon>
				<Axon Index="7">-0.311848153579093</Axon>
				<Axon Index="8">0.415686732124824</Axon>
				<Axon Index="9">-0.152741696310159</Axon>
				<Axon Index="10">-10.4623868225108</Axon>
				<Axon Index="11">-9.89175832073866</Axon>
				<Axon Index="12">-9.99264402920465</Axon>
				<Axon Index="13">-9.71750997757567</Axon>
				<Axon Index="14">-10.5928620208249</Axon>
				<Axon Index="15">0.394839024834272</Axon>
				<Axon Index="16">-0.276702287872518</Axon>
				<Axon Index="17">0.0733918558073011</Axon>
				<Axon Index="18">0.881930664734501</Axon>
				<Axon Index="19">-0.558168885288053</Axon>
				<Axon Index="20">0.333043199189405</Axon>
				<Axon Index="21">-0.949729806007287</Axon>
				<Axon Index="22">-11.2463481655846</Axon>
				<Axon Index="23">-0.924765558724602</Axon>
				<Axon Index="24">0.494951090557024</Axon>
			</Node>
			<Node Index="26" Bias="-1.3025683540226">
				<Axon Index="0">-0.351838508344887</Axon>
				<Axon Index="1">0.430232326322502</Axon>
				<Axon Index="2">-1.82322252371092</Axon>
				<Axon Index="3">-1.10118593139124</Axon>
				<Axon Index="4">-0.880457340115022</Axon>
				<Axon Index="5">-0.190251774930843</Axon>
				<Axon Index="6">-0.502973933216623</Axon>
				<Axon Index="7">-0.870812410026793</Axon>
				<Axon Index="8">-0.981311620085512</Axon>
				<Axon Index="9">-0.606911851735993</Axon>
				<Axon Index="10">-0.673877102273537</Axon>
				<Axon Index="11">-1.87465410834229</Axon>
				<Axon Index="12">-1.96092047155703</Axon>
				<Axon Index="13">-0.566788734492332</Axon>
				<Axon Index="14">0.392372966652934</Axon>
				<Axon Index="15">0.203693723193286</Axon>
				<Axon Index="16">-0.806779953089356</Axon>
				<Axon Index="17">0.120949828800499</Axon>
				<Axon Index="18">-0.430290114625257</Axon>
				<Axon Index="19">-0.486226940478862</Axon>
				<Axon Index="20">-1.57305012083525</Axon>
				<Axon Index="21">0.992488926616584</Axon>
				<Axon Index="22">0.664546793767858</Axon>
				<Axon Index="23">1.89439439528927</Axon>
				<Axon Index="24">-3.41338476704493</Axon>
			</Node>
			<Node Index="27" Bias="-0.690763088383429">
				<Axon Index="0">2.39753332566118</Axon>
				<Axon Index="1">0.631898341053712</Axon>
				<Axon Index="2">-0.190038896482219</Axon>
				<Axon Index="3">1.19858720095832</Axon>
				<Axon Index="4">3.14774245839859</Axon>
				<Axon Index="5">-0.197110368069232</Axon>
				<Axon Index="6">0.193719548943555</Axon>
				<Axon Index="7">-1.34280328584402</Axon>
				<Axon Index="8">1.23238350841259</Axon>
				<Axon Index="9">0.177277821912371</Axon>
				<Axon Index="10">-2.05908754305229</Axon>
				<Axon Index="11">-2.59702402239331</Axon>
				<Axon Index="12">-1.31593902594136</Axon>
				<Axon Index="13">-2.84674831767539</Axon>
				<Axon Index="14">-2.6294092818382</Axon>
				<Axon Index="15">-0.163028728384066</Axon>
				<Axon Index="16">1.94340867626344</Axon>
				<Axon Index="17">-0.909853264922661</Axon>
				<Axon Index="18">0.378503722217735</Axon>
				<Axon Index="19">-0.743305822177375</Axon>
				<Axon Index="20">1.50922748442442</Axon>
				<Axon Index="21">-0.271327535934182</Axon>
				<Axon Index="22">-1.49571446006625</Axon>
				<Axon Index="23">-0.702227147621883</Axon>
				<Axon Index="24">2.01010820669622</Axon>
			</Node>
			<Node Index="28" Bias="-4.65677280105047">
				<Axon Index="0">-1.2852857447258</Axon>
				<Axon Index="1">0.712682950442201</Axon>
				<Axon Index="2">0.410129724206949</Axon>
				<Axon Index="3">-1.09079097053059</Axon>
				<Axon Index="4">-1.22555825924206</Axon>
				<Axon Index="5">0.51287349656806</Axon>
				<Axon Index="6">0.290334587896786</Axon>
				<Axon Index="7">-1.33245494142261</Axon>
				<Axon Index="8">0.0244500275361658</Axon>
				<Axon Index="9">1.01764287186463</Axon>
				<Axon Index="10">-3.44407275265849</Axon>
				<Axon Index="11">-3.55389197321192</Axon>
				<Axon Index="12">-4.06468974007915</Axon>
				<Axon Index="13">-2.02350898917322</Axon>
				<Axon Index="14">-3.00562745902735</Axon>
				<Axon Index="15">-0.147511272699567</Axon>
				<Axon Index="16">0.596364952646273</Axon>
				<Axon Index="17">0.239167926943643</Axon>
				<Axon Index="18">1.44729138259507</Axon>
				<Axon Index="19">0.673600216394922</Axon>
				<Axon Index="20">-1.08528800230052</Axon>
				<Axon Index="21">-0.287976068782095</Axon>
				<Axon Index="22">0.862438129523227</Axon>
				<Axon Index="23">0.795171889464587</Axon>
				<Axon Index="24">-0.572779068875805</Axon>
			</Node>
			<Node Index="29" Bias="-1.93186130333546">
				<Axon Index="0">-0.53394870482091</Axon>
				<Axon Index="1">1.06448864600559</Axon>
				<Axon Index="2">0.118178873635158</Axon>
				<Axon Index="3">-0.73540888871995</Axon>
				<Axon Index="4">0.823969909416874</Axon>
				<Axon Index="5">-0.895132696252306</Axon>
				<Axon Index="6">-0.900531865379596</Axon>
				<Axon Index="7">1.6480066225876</Axon>
				<Axon Index="8">-1.39844735515334</Axon>
				<Axon Index="9">-0.479264521596081</Axon>
				<Axon Index="10">-2.90411300711768</Axon>
				<Axon Index="11">-1.00012944475043</Axon>
				<Axon Index="12">-1.95569706612358</Axon>
				<Axon Index="13">-2.37099726149284</Axon>
				<Axon Index="14">-1.94446858196102</Axon>
				<Axon Index="15">-0.76651278290125</Axon>
				<Axon Index="16">-1.71601439305909</Axon>
				<Axon Index="17">-0.0208233915700861</Axon>
				<Axon Index="18">0.696223604111053</Axon>
				<Axon Index="19">0.0224086252224825</Axon>
				<Axon Index="20">-2.54844449688565</Axon>
				<Axon Index="21">-0.349774671978048</Axon>
				<Axon Index="22">-0.273839496619256</Axon>
				<Axon Index="23">-0.162732562131324</Axon>
				<Axon Index="24">-0.901198427346438</Axon>
			</Node>
			<Node Index="30" Bias="-4.60956390740102">
				<Axon Index="0">-3.57890990502855</Axon>
				<Axon Index="1">1.55959099646575</Axon>
				<Axon Index="2">0.145499720359083</Axon>
				<Axon Index="3">-0.469998411996888</Axon>
				<Axon Index="4">-5.08704371157047</Axon>
				<Axon Index="5">-1.51473751720672</Axon>
				<Axon Index="6">-5.16112793539708</Axon>
				<Axon Index="7">1.0018365043551</Axon>
				<Axon Index="8">-4.26685448232712</Axon>
				<Axon Index="9">1.86770446919408</Axon>
				<Axon Index="10">-1.38946543637859</Axon>
				<Axon Index="11">-0.512428682584751</Axon>
				<Axon Index="12">-3.68639460978857</Axon>
				<Axon Index="13">-0.956960883529063</Axon>
				<Axon Index="14">-1.13055733812617</Axon>
				<Axon Index="15">0.71823847585132</Axon>
				<Axon Index="16">-4.87609698056957</Axon>
				<Axon Index="17">-2.02864232344841</Axon>
				<Axon Index="18">-2.20099676085341</Axon>
				<Axon Index="19">-0.303795047603355</Axon>
				<Axon Index="20">-5.53817246823983</Axon>
				<Axon Index="21">0.0574137754860725</Axon>
				<Axon Index="22">-0.194260912784753</Axon>
				<Axon Index="23">1.66063799586861</Axon>
				<Axon Index="24">-5.16567495779162</Axon>
			</Node>
			<Node Index="31" Bias="1.0133681940743">
				<Axon Index="0">-0.375287861728916</Axon>
				<Axon Index="1">0.73876782675236</Axon>
				<Axon Index="2">0.0781205281716474</Axon>
				<Axon Index="3">-0.253324932764015</Axon>
				<Axon Index="4">-0.299722722557251</Axon>
				<Axon Index="5">-1.6189312163378</Axon>
				<Axon Index="6">-0.0473016982011103</Axon>
				<Axon Index="7">0.0683807404639437</Axon>
				<Axon Index="8">-1.07592249577769</Axon>
				<Axon Index="9">0.528656267628959</Axon>
				<Axon Index="10">1.08561818632768</Axon>
				<Axon Index="11">0.401958319531009</Axon>
				<Axon Index="12">1.78091525211659</Axon>
				<Axon Index="13">-0.953797264653171</Axon>
				<Axon Index="14">1.98652784035415</Axon>
				<Axon Index="15">-0.324631922458155</Axon>
				<Axon Index="16">0.498883781474549</Axon>
				<Axon Index="17">0.840262447174389</Axon>
				<Axon Index="18">-2.09178886908909</Axon>
				<Axon Index="19">-0.485360588531488</Axon>
				<Axon Index="20">-0.619945868087892</Axon>
				<Axon Index="21">-0.169595538513482</Axon>
				<Axon Index="22">2.0404950840278</Axon>
				<Axon Index="23">0.603498228098262</Axon>
				<Axon Index="24">-2.00181612185059</Axon>
			</Node>
			<Node Index="32" Bias="-7.37175051839544">
				<Axon Index="0">-8.19901462461553</Axon>
				<Axon Index="1">0.0599749580039845</Axon>
				<Axon Index="2">-0.260069359233309</Axon>
				<Axon Index="3">0.364675792856313</Axon>
				<Axon Index="4">-9.62232892389952</Axon>
				<Axon Index="5">0.152825475674399</Axon>
				<Axon Index="6">-8.37992248036225</Axon>
				<Axon Index="7">-0.102332886020999</Axon>
				<Axon Index="8">-12.0149667753216</Axon>
				<Axon Index="9">-0.050055177120753</Axon>
				<Axon Index="10">0.651005927827655</Axon>
				<Axon Index="11">0.261033192342668</Axon>
				<Axon Index="12">-6.11999949622523</Axon>
				<Axon Index="13">-1.75230262637358</Axon>
				<Axon Index="14">-0.197527885222422</Axon>
				<Axon Index="15">-0.807274200958168</Axon>
				<Axon Index="16">-8.79877726209056</Axon>
				<Axon Index="17">-1.96966817224077</Axon>
				<Axon Index="18">-8.44485090375832</Axon>
				<Axon Index="19">0.0960457291001737</Axon>
				<Axon Index="20">-9.58069669667607</Axon>
				<Axon Index="21">-2.01657229241406</Axon>
				<Axon Index="22">-0.480144811715975</Axon>
				<Axon Index="23">-0.108499293787181</Axon>
				<Axon Index="24">-8.44749431986203</Axon>
			</Node>
			<Node Index="33" Bias="-3.17935561869814">
				<Axon Index="0">-3.69289115686713</Axon>
				<Axon Index="1">-0.235152913485513</Axon>
				<Axon Index="2">-1.17683071450062</Axon>
				<Axon Index="3">-0.651175343504287</Axon>
				<Axon Index="4">-4.2412870354677</Axon>
				<Axon Index="5">0.0919347798361085</Axon>
				<Axon Index="6">-3.30038246211189</Axon>
				<Axon Index="7">-1.30054133954228</Axon>
				<Axon Index="8">-3.79169098599103</Axon>
				<Axon Index="9">0.809264867987649</Axon>
				<Axon Index="10">-1.12821830452484</Axon>
				<Axon Index="11">-0.511068187451703</Axon>
				<Axon Index="12">-5.0412122909633</Axon>
				<Axon Index="13">1.15236534320013</Axon>
				<Axon Index="14">1.31500424197348</Axon>
				<Axon Index="15">-0.0375184174727438</Axon>
				<Axon Index="16">-5.22921837170987</Axon>
				<Axon Index="17">-1.12371120274009</Axon>
				<Axon Index="18">-3.43954152226907</Axon>
				<Axon Index="19">0.648829256409355</Axon>
				<Axon Index="20">-4.86832139398938</Axon>
				<Axon Index="21">-0.29122801046413</Axon>
				<Axon Index="22">-1.07763544382211</Axon>
				<Axon Index="23">0.889398979216386</Axon>
				<Axon Index="24">-5.11818970771051</Axon>
			</Node>
			<Node Index="34" Bias="-0.310555750055795">
				<Axon Index="0">3.10377541667846</Axon>
				<Axon Index="1">-0.478884142055411</Axon>
				<Axon Index="2">-1.13631886506112</Axon>
				<Axon Index="3">0.106966079915831</Axon>
				<Axon Index="4">2.396934531651</Axon>
				<Axon Index="5">-0.344199700671821</Axon>
				<Axon Index="6">0.607753830457342</Axon>
				<Axon Index="7">1.30063049725425</Axon>
				<Axon Index="8">0.332860904312326</Axon>
				<Axon Index="9">-1.93356528852784</Axon>
				<Axon Index="10">-1.47256305820266</Axon>
				<Axon Index="11">-1.31558420212306</Axon>
				<Axon Index="12">-2.06712972922523</Axon>
				<Axon Index="13">-2.05626072316888</Axon>
				<Axon Index="14">-0.190689612066529</Axon>
				<Axon Index="15">-0.376250254240895</Axon>
				<Axon Index="16">0.0626819992938328</Axon>
				<Axon Index="17">-0.58436871868401</Axon>
				<Axon Index="18">0.093851540289089</Axon>
				<Axon Index="19">0.0171962344011889</Axon>
				<Axon Index="20">0.643361682258399</Axon>
				<Axon Index="21">0.818010954267341</Axon>
				<Axon Index="22">-0.172783510935112</Axon>
				<Axon Index="23">-1.51464404430078</Axon>
				<Axon Index="24">-0.058663783311394</Axon>
			</Node>
		</Layer>
		<Layer Index="1">
			<Node Index="0" Bias="-1.06841932030418">
				<Axon Index="0">-1.34831064533676</Axon>
				<Axon Index="1">0.611735750898982</Axon>
				<Axon Index="2">-0.173086111183722</Axon>
				<Axon Index="3">1.02301446174971</Axon>
				<Axon Index="4">0.290415867249723</Axon>
				<Axon Index="5">-0.347748796866847</Axon>
				<Axon Index="6">-0.0159709185398506</Axon>
				<Axon Index="7">3.26959647100453</Axon>
				<Axon Index="8">1.15582962527197</Axon>
				<Axon Index="9">-2.85248492382027</Axon>
				<Axon Index="10">2.44427833692091</Axon>
				<Axon Index="11">-0.457594959908802</Axon>
				<Axon Index="12">-3.01069251224585</Axon>
				<Axon Index="13">-2.33050425870271</Axon>
				<Axon Index="14">-1.72782873857762</Axon>
				<Axon Index="15">1.85465444970771</Axon>
				<Axon Index="16">1.12702772089446</Axon>
				<Axon Index="17">2.39177898653198</Axon>
				<Axon Index="18">-1.75955496563017</Axon>
				<Axon Index="19">0.583671784581639</Axon>
				<Axon Index="20">-2.17870811753403</Axon>
				<Axon Index="21">0.478089594226144</Axon>
				<Axon Index="22">-0.621634797125174</Axon>
				<Axon Index="23">-1.00775963746657</Axon>
				<Axon Index="24">1.16103985632719</Axon>
				<Axon Index="25">-4.16115024845402</Axon>
				<Axon Index="26">1.34450287280533</Axon>
				<Axon Index="27">-0.377242149505362</Axon>
				<Axon Index="28">0.487425005146716</Axon>
				<Axon Index="29">0.990142903473152</Axon>
				<Axon Index="30">1.55339014579445</Axon>
				<Axon Index="31">-1.96306848424832</Axon>
				<Axon Index="32">-0.449984597953527</Axon>
				<Axon Index="33">-2.69293737080783</Axon>
				<Axon Index="34">1.51260989740014</Axon>
			</Node>
			<Node Index="1" Bias="-0.627487368160925">
				<Axon Index="0">-3.48676489325426</Axon>
				<Axon Index="1">-3.51383955231528</Axon>
				<Axon Index="2">5.24383510679005</Axon>
				<Axon Index="3">0.285887287856482</Axon>
				<Axon Index="4">-1.9397029413245</Axon>
				<Axon Index="5">-0.191205505315413</Axon>
				<Axon Index="6">-1.18694628524739</Axon>
				<Axon Index="7">1.00469773817483</Axon>
				<Axon Index="8">-0.421753964620727</Axon>
				<Axon Index="9">6.38583458597078</Axon>
				<Axon Index="10">-2.82199473442636</Axon>
				<Axon Index="11">3.74951665979905</Axon>
				<Axon Index="12">3.33690381101439</Axon>
				<Axon Index="13">6.96403085287739</Axon>
				<Axon Index="14">5.91825320704613</Axon>
				<Axon Index="15">0.336704105850016</Axon>
				<Axon Index="16">5.13550182064327</Axon>
				<Axon Index="17">-5.22677462601172</Axon>
				<Axon Index="18">-0.858776655863144</Axon>
				<Axon Index="19">-0.721455951163624</Axon>
				<Axon Index="20">5.45279068313639</Axon>
				<Axon Index="21">-0.922310814332511</Axon>
				<Axon Index="22">-1.92252255119594</Axon>
				<Axon Index="23">-0.567904455386724</Axon>
				<Axon Index="24">-2.27381786772077</Axon>
				<Axon Index="25">7.96713678549391</Axon>
				<Axon Index="26">0.140434937727123</Axon>
				<Axon Index="27">2.9659546693208</Axon>
				<Axon Index="28">-0.664891423062856</Axon>
				<Axon Index="29">-4.63314510302613</Axon>
				<Axon Index="30">-3.77036987200149</Axon>
				<Axon Index="31">-0.275063796911492</Axon>
				<Axon Index="32">2.35218591212191</Axon>
				<Axon Index="33">5.33258592133823</Axon>
				<Axon Index="34">-0.330812153273954</Axon>
			</Node>
			<Node Index="2" Bias="1.52082566921152">
				<Axon Index="0">1.56227940057929</Axon>
				<Axon Index="1">2.29119775311735</Axon>
				<Axon Index="2">-5.42681107757538</Axon>
				<Axon Index="3">0.533907467124282</Axon>
				<Axon Index="4">1.3126765235812</Axon>
				<Axon Index="5">-0.102051385205353</Axon>
				<Axon Index="6">2.51789077424805</Axon>
				<Axon Index="7">-4.61617427874826</Axon>
				<Axon Index="8">-0.348664478100975</Axon>
				<Axon Index="9">-5.8254491030869</Axon>
				<Axon Index="10">2.74119183632476</Axon>
				<Axon Index="11">-2.50096240350264</Axon>
				<Axon Index="12">-2.50175924742642</Axon>
				<Axon Index="13">-3.39157013443227</Axon>
				<Axon Index="14">-3.98375018907066</Axon>
				<Axon Index="15">0.357253086458266</Axon>
				<Axon Index="16">-2.48244541809822</Axon>
				<Axon Index="17">4.82695775623579</Axon>
				<Axon Index="18">-1.7422829607998</Axon>
				<Axon Index="19">-0.363148002329975</Axon>
				<Axon Index="20">-3.13229661483337</Axon>
				<Axon Index="21">1.89459799819654</Axon>
				<Axon Index="22">-0.562431189157589</Axon>
				<Axon Index="23">-0.0265558755882198</Axon>
				<Axon Index="24">4.11749895684488</Axon>
				<Axon Index="25">-4.70291314789835</Axon>
				<Axon Index="26">-0.362929762154676</Axon>
				<Axon Index="27">-1.26192739179757</Axon>
				<Axon Index="28">1.40338481090707</Axon>
				<Axon Index="29">1.49756950932038</Axon>
				<Axon Index="30">1.75601249794181</Axon>
				<Axon Index="31">2.42105020612505</Axon>
				<Axon Index="32">-0.816813943043076</Axon>
				<Axon Index="33">-5.86506143500152</Axon>
				<Axon Index="34">-0.361177450989594</Axon>
			</Node>
			<Node Index="3" Bias="0.541598424662086">
				<Axon Index="0">1.09204371196237</Axon>
				<Axon Index="1">0.229286201577638</Axon>
				<Axon Index="2">-0.488001471161533</Axon>
				<Axon Index="3">-2.06933902164873</Axon>
				<Axon Index="4">1.9326983451857</Axon>
				<Axon Index="5">0.0177715252569342</Axon>
				<Axon Index="6">-0.229068070456402</Axon>
				<Axon Index="7">-0.588890376123351</Axon>
				<Axon Index="8">0.0499688559398374</Axon>
				<Axon Index="9">-2.92180735780086</Axon>
				<Axon Index="10">3.07755909454531</Axon>
				<Axon Index="11">-2.15148927900814</Axon>
				<Axon Index="12">-4.72029675914149</Axon>
				<Axon Index="13">-4.15149109855629</Axon>
				<Axon Index="14">-4.80119118420495</Axon>
				<Axon Index="15">-1.15387475117772</Axon>
				<Axon Index="16">-3.68842243881587</Axon>
				<Axon Index="17">1.92728517904372</Axon>
				<Axon Index="18">-0.0786290503710588</Axon>
				<Axon Index="19">0.303514447726238</Axon>
				<Axon Index="20">-2.810864086725</Axon>
				<Axon Index="21">2.00673439193728</Axon>
				<Axon Index="22">0.348151363805142</Axon>
				<Axon Index="23">-0.116923325065879</Axon>
				<Axon Index="24">3.08872097365984</Axon>
				<Axon Index="25">-4.26506817702801</Axon>
				<Axon Index="26">-0.218472906472264</Axon>
				<Axon Index="27">-0.753287437408014</Axon>
				<Axon Index="28">-0.650036464112209</Axon>
				<Axon Index="29">1.29971281438167</Axon>
				<Axon Index="30">2.76789859957061</Axon>
				<Axon Index="31">1.27994723873625</Axon>
				<Axon Index="32">0.191599996712169</Axon>
				<Axon Index="33">-3.32147648396575</Axon>
				<Axon Index="34">0.206938228201721</Axon>
			</Node>
		</Layer>
	</Weights>
</NeuralNetwork>